<?xml version="1.0"?>
<opencv_storage>
<opencv_ml_svm>
  <format>3</format>
  <svmType>C_SVC</svmType>
  <kernel>
    <type>RBF</type>
    <gamma>2.2500000000000003e-03</gamma></kernel>
  <C>2.5000000000000000e+00</C>
  <term_criteria><epsilon>1.1920928955078125e-07</epsilon>
    <iterations>1000</iterations></term_criteria>
  <var_count>9</var_count>
  <class_count>2</class_count>
  <class_labels type_id="opencv-matrix">
    <rows>2</rows>
    <cols>1</cols>
    <dt>i</dt>
    <data>
      -1 1</data></class_labels>
  <sv_total>53</sv_total>
  <support_vectors>
    <_>
      2.24895000e+01 8.04479370e+01 9.78749161e+01 2.76857052e+01
      9.38838425e+01 1.06846657e+02 2.16724133e+00 8.03190887e-01
      3.25656176e-01</_>
    <_>
      2.23870182e+01 6.86959534e+01 1.20168350e+02 2.52299309e+01
      8.32908249e+01 1.10247742e+02 2.22532415e+00 1.12283897e+00
      -7.41340145e-02</_>
    <_>
      2.45058899e+01 8.40840073e+01 1.23877014e+02 2.51183357e+01
      8.53344650e+01 1.03544006e+02 2.24440575e+00 8.28977168e-01
      -2.18698725e-01</_>
    <_>
      2.20990028e+01 7.42270126e+01 1.17533195e+02 2.36920300e+01
      8.40207825e+01 1.06505478e+02 2.27475262e+00 9.72212374e-01
      -5.89256473e-02</_>
    <_>
      2.74572735e+01 1.03298859e+02 1.05391846e+02 2.96017609e+01
      9.83055801e+01 1.03794258e+02 2.02104115e+00 3.99144620e-01
      1.81666151e-01</_>
    <_>
      2.43970108e+01 1.12137955e+02 1.15088219e+02 2.35005932e+01
      9.78912430e+01 1.02220421e+02 2.36602044e+00 1.63370892e-01
      9.17316526e-02</_>
    <_>
      2.37108860e+01 1.00613792e+02 1.03401314e+02 2.56844959e+01
      9.86792145e+01 1.03986061e+02 2.23025537e+00 3.78624111e-01
      2.77828664e-01</_>
    <_>
      2.28035660e+01 1.08528374e+02 1.20705070e+02 1.96340504e+01
      9.48833694e+01 1.00799507e+02 2.25470352e+00 1.91480488e-01
      -1.07244104e-02</_>
    <_>
      2.27722740e+01 8.97077408e+01 9.93218079e+01 2.77353821e+01
      9.61640091e+01 1.03910934e+02 2.26850724e+00 5.69545507e-01
      2.83869624e-01</_>
    <_>
      2.54000549e+01 1.12495689e+02 1.24677307e+02 2.23310242e+01
      9.52722092e+01 1.01517197e+02 2.37321711e+00 1.77626744e-01
      -7.53945783e-02</_>
    <_>
      2.43023930e+01 1.11759552e+02 1.33788544e+02 1.89323444e+01
      9.25398560e+01 9.90040207e+01 2.30169845e+00 1.66437924e-01
      -2.29705364e-01</_>
    <_>
      2.21073475e+01 1.04095589e+02 1.14240814e+02 2.05409050e+01
      9.57049866e+01 1.02114960e+02 2.22134924e+00 2.64846683e-01
      9.46083292e-02</_>
    <_>
      2.53758640e+01 8.76804428e+01 1.29157181e+02 2.51208858e+01
      8.55401764e+01 1.02606461e+02 2.26341343e+00 7.78242707e-01
      -3.15190285e-01</_>
    <_>
      2.54095631e+01 6.99918823e+01 1.48699753e+02 2.20130272e+01
      8.02188187e+01 1.07389488e+02 1.91536748e+00 1.10873723e+00
      -5.16478360e-01</_>
    <_>
      2.42281075e+01 1.09657387e+02 1.14082069e+02 2.35434761e+01
      9.73590851e+01 1.02398148e+02 2.36191225e+00 2.10777596e-01
      1.08554311e-01</_>
    <_>
      2.33833389e+01 6.47396469e+01 1.29368362e+02 2.50398273e+01
      8.54291458e+01 1.15687088e+02 2.09915829e+00 1.22384739e+00
      -1.13076836e-01</_>
    <_>
      2.66847267e+01 1.00704475e+02 1.21671425e+02 2.53090782e+01
      9.21805420e+01 1.03661438e+02 2.14070964e+00 4.24093634e-01
      -6.50198385e-02</_>
    <_>
      2.90764637e+01 9.20017090e+01 1.52998322e+02 2.48208313e+01
      8.77714386e+01 1.04202354e+02 2.22008705e+00 6.38280630e-01
      -6.04818463e-01</_>
    <_>
      2.63945370e+01 1.06197174e+02 1.22810181e+02 2.57542877e+01
      9.42731476e+01 1.01964478e+02 2.26729345e+00 3.23557436e-01
      -8.92845318e-02</_>
    <_>
      2.26840992e+01 7.14478531e+01 1.11000824e+02 2.63097782e+01
      9.04394226e+01 1.11946342e+02 2.03724837e+00 1.01271236e+00
      1.31926298e-01</_>
    <_>
      2.52179928e+01 1.08718208e+02 1.42831451e+02 1.93727303e+01
      9.11597137e+01 9.82307587e+01 2.36374259e+00 2.80092001e-01
      -3.82620454e-01</_>
    <_>
      2.25590935e+01 1.08831749e+02 1.23602898e+02 2.60254803e+01
      8.95138397e+01 1.03480270e+02 2.68783712e+00 1.90296605e-01
      -1.12080716e-01</_>
    <_>
      2.37738876e+01 1.20706566e+02 1.34689255e+02 2.44470100e+01
      8.67742004e+01 9.84562302e+01 2.89337778e+00 -2.73389593e-02
      -2.87474811e-01</_>
    <_>
      2.31188011e+01 1.22418800e+02 4.87697449e+01 2.57725391e+01
      9.45494461e+01 6.75377274e+01 2.09302664e+00 -2.11385608e-01
      1.39073431e+00</_>
    <_>
      2.13011398e+01 1.37505798e+02 9.51521683e+01 2.26539249e+01
      9.16582108e+01 8.69654694e+01 3.08420038e+00 -3.78560692e-01
      2.79416710e-01</_>
    <_>
      2.83590260e+01 1.21348694e+02 7.71653671e+01 2.37909565e+01
      8.12937317e+01 6.58834152e+01 1.75955987e+00 -2.94431388e-01
      2.90424377e-01</_>
    <_>
      2.16704674e+01 1.35705566e+02 1.37267151e+02 1.92751980e+01
      7.67024994e+01 9.16402588e+01 3.67601299e+00 -3.23122710e-01
      -3.06233853e-01</_>
    <_>
      3.06057396e+01 1.30112610e+02 6.71470566e+01 2.06836815e+01
      7.53366394e+01 5.30555382e+01 1.52310085e+00 -3.63730848e-01
      2.95672029e-01</_>
    <_>
      2.11709538e+01 1.03358131e+02 1.21192558e+02 2.39594345e+01
      8.75031891e+01 1.02911362e+02 2.88333416e+00 2.59588361e-01
      -6.40154853e-02</_>
    <_>
      3.08027363e+01 1.43953049e+02 4.07638245e+01 2.12820930e+01
      7.63057175e+01 4.47040291e+01 1.57686293e+00 -7.50653565e-01
      1.92071450e+00</_>
    <_>
      1.87564487e+01 9.25838013e+01 4.36866989e+01 2.54379005e+01
      9.85074081e+01 6.23899345e+01 2.15488863e+00 3.67671013e-01
      1.18912745e+00</_>
    <_>
      2.31684742e+01 1.14418015e+02 1.19784203e+02 2.30567245e+01
      9.02411728e+01 1.02726562e+02 2.80894423e+00 8.46395791e-02
      3.75011452e-02</_>
    <_>
      2.65516529e+01 1.23779976e+02 5.47168808e+01 2.56650734e+01
      8.24490891e+01 6.95480881e+01 1.96861911e+00 -2.66827106e-01
      1.30950212e+00</_>
    <_>
      2.56254215e+01 1.24358803e+02 2.99082432e+01 2.49556522e+01
      9.21578369e+01 4.21553993e+01 1.85365844e+00 -2.82306552e-01
      2.18139529e+00</_>
    <_>
      2.35886326e+01 1.04332680e+02 5.48121986e+01 2.62445068e+01
      9.06251373e+01 6.05909233e+01 1.83252633e+00 9.35140029e-02
      6.95147991e-01</_>
    <_>
      3.08595295e+01 1.33281128e+02 8.34242783e+01 2.29354458e+01
      7.62488708e+01 6.37136574e+01 1.88215017e+00 -4.91710514e-01
      1.69156715e-01</_>
    <_>
      2.76814518e+01 1.20188202e+02 3.33268356e+01 2.49394341e+01
      8.70579910e+01 4.31911774e+01 1.44854987e+00 -2.81837642e-01
      2.13385963e+00</_>
    <_>
      2.30605946e+01 1.18263115e+02 1.57515533e+02 2.19691181e+01
      8.27421570e+01 9.67895737e+01 3.04633713e+00 -5.26751019e-02
      -6.98792398e-01</_>
    <_>
      2.99059105e+01 1.47542435e+02 3.83977394e+01 2.27263947e+01
      8.18532333e+01 4.84556389e+01 1.85632133e+00 -6.86785281e-01
      1.94479263e+00</_>
    <_>
      2.42419090e+01 1.17220184e+02 6.43404617e+01 2.45307884e+01
      9.03872833e+01 6.57571487e+01 1.82214510e+00 -1.16710179e-01
      5.88257730e-01</_>
    <_>
      2.12635441e+01 1.01193756e+02 1.14905075e+02 2.51126232e+01
      8.91432800e+01 1.03916862e+02 2.75971746e+00 3.07950616e-01
      4.97335084e-02</_>
    <_>
      2.33693085e+01 1.12968208e+02 1.33311005e+02 2.14212322e+01
      8.52554932e+01 1.00149132e+02 2.92965364e+00 4.12800498e-02
      -1.98618725e-01</_>
    <_>
      2.23309402e+01 1.47260666e+02 1.15960243e+02 1.97453423e+01
      8.08875885e+01 8.60511703e+01 3.47354269e+00 -5.93950808e-01
      -5.27058393e-02</_>
    <_>
      2.29764042e+01 1.11756958e+02 1.16425407e+02 2.54046249e+01
      9.14182892e+01 1.01408035e+02 2.67051220e+00 1.15259051e-01
      2.13871114e-02</_>
    <_>
      2.90465126e+01 1.40922180e+02 3.37241173e+01 2.27301369e+01
      8.27224655e+01 4.13526649e+01 1.73942542e+00 -6.11723721e-01
      2.11979485e+00</_>
    <_>
      2.80057106e+01 1.46933014e+02 4.87874756e+01 2.65199890e+01
      8.71380005e+01 6.38408966e+01 2.06177306e+00 -6.17025912e-01
      1.39002764e+00</_>
    <_>
      2.43144493e+01 1.10729691e+02 4.02227173e+01 2.65530167e+01
      9.64838333e+01 4.92722588e+01 1.73652494e+00 4.23396975e-02
      1.05712402e+00</_>
    <_>
      1.92729244e+01 1.00377136e+02 9.88061676e+01 2.49554100e+01
      9.38765793e+01 1.00921440e+02 2.84957528e+00 2.82908797e-01
      3.43514442e-01</_>
    <_>
      3.18973064e+01 1.44095001e+02 7.02456055e+01 2.16119442e+01
      7.45244522e+01 5.32680855e+01 1.78295469e+00 -5.35536647e-01
      2.77245790e-01</_>
    <_>
      2.27498875e+01 1.47874435e+02 1.11413795e+02 2.14275875e+01
      7.70783844e+01 8.44093399e+01 3.37320161e+00 -6.35935187e-01
      2.44264193e-02</_>
    <_>
      2.72162876e+01 1.38276672e+02 5.56757202e+01 2.74833698e+01
      8.86047440e+01 7.00354309e+01 2.06016469e+00 -4.82746094e-01
      1.22866833e+00</_>
    <_>
      2.22135258e+01 1.12335091e+02 1.12391983e+02 2.59089470e+01
      9.32765121e+01 1.01672226e+02 2.71874857e+00 1.01280741e-01
      1.00363240e-01</_>
    <_>
      2.03564110e+01 1.05830353e+02 9.58423767e+01 2.66009750e+01
      9.50586853e+01 9.93107986e+01 2.70625067e+00 2.06620172e-01
      3.75871330e-01</_></support_vectors>
  <decision_functions>
    <_>
      <sv_count>53</sv_count>
      <rho>-3.9342482023356767e-01</rho>
      <alpha>
        1.0408356152757041e-01 3.0487232715711621e-01
        2.0201604071360926e-01 4.6542136578940041e-01
        5.7766257207786179e-02 7.6347428844365434e-02
        4.5248226951219717e-02 7.5473749887826780e-01
        2.6706152340025802e-01 7.7420330096038090e-02
        2.5000000000000000e+00 1.6386620609185845e-01
        5.6263100268133692e-01 1.5148017401024313e-01
        2.8971360081766628e-01 1.4771697136758352e-01
        2.5000000000000000e+00 3.1018527384414324e-01
        7.8746315128839312e-02 2.5000000000000000e+00
        3.2255657530283449e-01 1.2601131532280643e-01
        2.3866869891831644e-01 5.6951699606612366e-02
        1.0365159294556541e+00 3.2846688372469035e-01
        2.5000000000000000e+00 2.5000000000000000e+00
        1.4587678459239384e-01 2.5000000000000000e+00
        1.5335378379231436e-02 1.1579337624781594e-01
        -3.2791266001408570e-01 -1.2160288438815325e+00
        -2.1252991421946459e+00 -9.7062396936001896e-02
        -2.5882564552926365e-02 -2.5000000000000000e+00
        -1.6525578680116237e+00 -1.0998260113855185e+00
        -1.5302076335663134e-01 -5.3300634161895432e-03
        -2.7817972331631236e-01 -1.1522153724545235e-01
        -2.5000000000000000e+00 -8.3596002608289088e-01
        -3.6938963150418586e-01 -7.1689388901192763e-01
        -7.2277822352328658e-01 -2.5000000000000000e+00
        -1.4564955867626315e+00 -2.5000000000000000e+00
        -2.4765181486181478e-01</alpha>
      <index>
        26 24 25 30 31 32 27 28 29 22 21 23 52 44 45 46 47 49 50 51 48
        34 35 36 37 33 40 41 42 43 38 39 19 20 6 7 4 5 8 9 3 1 2 0 14 13
        18 15 17 16 11 10 12</index></_></decision_functions></opencv_ml_svm>
</opencv_storage>
